{
    "name": "tree",
    "version": "v2",
    "num_class": 1,
    "num_tree_per_iteration": 1,
    "label_index": 0,
    "max_feature_idx": 27,
    "feature_names": [
        "feature_0",
        "feature_1",
        "feature_2",
        "feature_3",
        "feature_4",
        "feature_5",
        "feature_6",
        "feature_7",
        "feature_8",
        "feature_9",
        "feature_10",
        "feature_11",
        "feature_12",
        "feature_13",
        "feature_14",
        "feature_15",
        "feature_16",
        "feature_17",
        "feature_18",
        "feature_19",
        "feature_20",
        "feature_21",
        "feature_22",
        "feature_23",
        "feature_24",
        "feature_25",
        "feature_26",
        "feature_27"
    ],
    "tree_info": [
        {
            "tree_index": 0,
            "num_leaves": 31,
            "num_cat": 0,
            "shrinkage": 0.05,
            "tree_structure": {
                "split_index": 0,
                "split_feature": 25,
                "split_gain": 257.05499267578125,
                "threshold": 1.2815,
                "decision_type": "<=",
                "default_left": true,
                "missing_type": "None",
                "internal_value": 0,
                "internal_count": 5600,
                "left_child": {
                    "split_index": 1,
                    "split_feature": 26,
                    "split_gain": 164.4810028076172,
                    "threshold": 0.7805000000000001,
                    "decision_type": "<=",
                    "default_left": true,
                    "missing_type": "None",
                    "internal_value": 0.340351,
                    "internal_count": 4560,
                    "left_child": {
                        "split_index": 7,
                        "split_feature": 5,
                        "split_gain": 35.8828010559082,
                        "threshold": 0.8255,
                        "decision_type": "<=",
                        "default_left": true,
                        "missing_type": "None",
                        "internal_value": -0.364167,
                        "internal_count": 1027,
                        "left_child": {
                            "split_index": 23,
                            "split_feature": 24,
                            "split_gain": 13.395700454711914,
                            "threshold": 0.7185000000000001,
                            "decision_type": "<=",
                            "default_left": true,
                            "missing_type": "None",
                            "internal_value": -0.624277,
                            "internal_count": 692,
                            "left_child": {
                                "leaf_index": 0,
                                "leaf_value": -0.014487632508833923,
                                "leaf_count": 283
                            },
                            "right_child": {
                                "leaf_index": 24,
                                "leaf_value": -0.042787286063569685,
                                "leaf_count": 409
                            }
                        },
                        "right_child": {
                            "split_index": 9,
                            "split_feature": 27,
                            "split_gain": 27.79949951171875,
                            "threshold": 0.9225000000000001,
                            "decision_type": "<=",
                            "default_left": true,
                            "missing_type": "None",
                            "internal_value": 0.173134,
                            "internal_count": 335,
                            "left_child": {
                                "split_index": 22,
                                "split_feature": 5,
                                "split_gain": 14.181300163269043,
                                "threshold": 1.3365000000000002,
                                "decision_type": "<=",
                                "default_left": true,
                                "missing_type": "None",
                                "internal_value": 0.325879,
                                "internal_count": 313,
                                "left_child": {
                                    "split_index": 26,
                                    "split_feature": 25,
                                    "split_gain": 12.618200302124023,
                                    "threshold": 0.5865000000000001,
                                    "decision_type": "<=",
                                    "default_left": true,
                                    "missing_type": "None",
                                    "internal_value": 0.125,
                                    "internal_count": 256,
                                    "left_child": {
                                        "split_index": 27,
                                        "split_feature": 24,
                                        "split_gain": 12.659299850463867,
                                        "threshold": 0.7455000000000002,
                                        "decision_type": "<=",
                                        "default_left": true,
                                        "missing_type": "None",
                                        "internal_value": -0.358974,
                                        "internal_count": 117,
                                        "left_child": {
                                            "leaf_index": 8,
                                            "leaf_value": 0.006666666666666665,
                                            "leaf_count": 75
                                        },
                                        "right_child": {
                                            "leaf_index": 28,
                                            "leaf_value": -0.06190476190476191,
                                            "leaf_count": 42
                                        }
                                    },
                                    "right_child": {
                                        "leaf_index": 27,
                                        "leaf_value": 0.026618705035971225,
                                        "leaf_count": 139
                                    }
                                },
                                "right_child": {
                                    "leaf_index": 23,
                                    "leaf_value": 0.06140350877192983,
                                    "leaf_count": 57
                                }
                            },
                            "right_child": {
                                "leaf_index": 10,
                                "leaf_value": -0.1,
                                "leaf_count": 22
                            }
                        }
                    },
                    "right_child": {
                        "split_index": 2,
                        "split_feature": 27,
                        "split_gain": 154.1529998779297,
                        "threshold": 0.9045000000000002,
                        "decision_type": "<=",
                        "default_left": true,
                        "missing_type": "None",
                        "internal_value": 0.545146,
                        "internal_count": 3533,
                        "left_child": {
                            "split_index": 3,
                            "split_feature": 25,
                            "split_gain": 62.97819900512695,
                            "threshold": 0.9845000000000002,
                            "decision_type": "<=",
                            "default_left": true,
                            "missing_type": "None",
                            "internal_value": 0.923711,
                            "internal_count": 1940,
                            "left_child": {
                                "split_index": 4,
                                "split_feature": 25,
                                "split_gain": 70.5426025390625,
                                "threshold": 0.6785000000000001,
                                "decision_type": "<=",
                                "default_left": true,
                                "missing_type": "None",
                                "internal_value": 1.10707,
                                "internal_count": 1541,
                                "left_child": {
                                    "split_index": 28,
                                    "split_feature": 13,
                                    "split_gain": 12.281000137329102,
                                    "threshold": 0.9615000000000001,
                                    "decision_type": "<=",
                                    "default_left": true,
                                    "missing_type": "None",
                                    "internal_value": 0.38191,
                                    "internal_count": 398,
                                    "left_child": {
                                        "split_index": 29,
                                        "split_feature": 24,
                                        "split_gain": 14.386199951171875,
                                        "threshold": 0.7515000000000001,
                                        "decision_type": "<=",
                                        "default_left": true,
                                        "missing_type": "None",
                                        "internal_value": 0.175676,
                                        "internal_count": 296,
                                        "left_child": {
                                            "leaf_index": 2,
                                            "leaf_value": 0.05161290322580645,
                                            "leaf_count": 62
                                        },
                                        "right_child": {
                                            "leaf_index": 30,
                                            "leaf_value": -0.002564102564102564,
                                            "leaf_count": 234
                                        }
                                    },
                                    "right_child": {
                                        "leaf_index": 29,
                                        "leaf_value": 0.049019607843137254,
                                        "leaf_count": 102
                                    }
                                },
                                "right_child": {
                                    "split_index": 10,
                                    "split_feature": 26,
                                    "split_gain": 27.70789909362793,
                                    "threshold": 0.8695000000000002,
                                    "decision_type": "<=",
                                    "default_left": true,
                                    "missing_type": "None",
                                    "internal_value": 1.35958,
                                    "internal_count": 1143,
                                    "left_child": {
                                        "split_index": 11,
                                        "split_feature": 27,
                                        "split_gain": 26.485700607299805,
                                        "threshold": 0.7885000000000001,
                                        "decision_type": "<=",
                                        "default_left": true,
                                        "missing_type": "None",
                                        "internal_value": 0.928571,
                                        "internal_count": 392,
                                        "left_child": {
                                            "leaf_index": 5,
                                            "leaf_value": 0.0631768953068592,
                                            "leaf_count": 277
                                        },
                                        "right_child": {
                                            "leaf_index": 12,
                                            "leaf_value": 0.006086956521739131,
                                            "leaf_count": 115
                                        }
                                    },
                                    "right_child": {
                                        "leaf_index": 11,
                                        "leaf_value": 0.07922769640479362,
                                        "leaf_count": 751
                                    }
                                }
                            },
                            "right_child": {
                                "split_index": 8,
                                "split_feature": 5,
                                "split_gain": 33.473899841308594,
                                "threshold": 1.0195000000000003,
                                "decision_type": "<=",
                                "default_left": true,
                                "missing_type": "None",
                                "internal_value": 0.215539,
                                "internal_count": 399,
                                "left_child": {
                                    "split_index": 13,
                                    "split_feature": 26,
                                    "split_gain": 22.037799835205078,
                                    "threshold": 0.8885000000000002,
                                    "decision_type": "<=",
                                    "default_left": true,
                                    "missing_type": "None",
                                    "internal_value": -0.146341,
                                    "internal_count": 287,
                                    "left_child": {
                                        "leaf_index": 4,
                                        "leaf_value": -0.037984496124031014,
                                        "leaf_count": 129
                                    },
                                    "right_child": {
                                        "leaf_index": 14,
                                        "leaf_value": 0.017721518987341773,
                                        "leaf_count": 158
                                    }
                                },
                                "right_child": {
                                    "leaf_index": 9,
                                    "leaf_value": 0.05714285714285714,
                                    "leaf_count": 112
                                }
                            }
                        },
                        "right_child": {
                            "split_index": 5,
                            "split_feature": 24,
                            "split_gain": 52.55540084838867,
                            "threshold": 1.0265000000000002,
                            "decision_type": "<=",
                            "default_left": true,
                            "missing_type": "None",
                            "internal_value": 0.084118,
                            "internal_count": 1593,
                            "left_child": {
                                "split_index": 6,
                                "split_feature": 22,
                                "split_gain": 83.93370056152344,
                                "threshold": 1.0445000000000002,
                                "decision_type": "<=",
                                "default_left": true,
                                "missing_type": "None",
                                "internal_value": -0.371567,
                                "internal_count": 619,
                                "left_child": {
                                    "leaf_index": 3,
                                    "leaf_value": -0.05570032573289903,
                                    "leaf_count": 307
                                },
                                "right_child": {
                                    "split_index": 24,
                                    "split_feature": 4,
                                    "split_gain": 12.686800003051758,
                                    "threshold": 1.2535,
                                    "decision_type": "<=",
                                    "default_left": true,
                                    "missing_type": "None",
                                    "internal_value": 0.358974,
                                    "internal_count": 312,
                                    "left_child": {
                                        "split_index": 25,
                                        "split_feature": 4,
                                        "split_gain": 13.668499946594238,
                                        "threshold": -0.27149999999999996,
                                        "decision_type": "<=",
                                        "default_left": true,
                                        "missing_type": "None",
                                        "internal_value": 0.522388,
                                        "internal_count": 268,
                                        "left_child": {
                                            "leaf_index": 7,
                                            "leaf_value": 0.003703703703703704,
                                            "leaf_count": 135
                                        },
                                        "right_child": {
                                            "leaf_index": 26,
                                            "leaf_value": 0.04887218045112782,
                                            "leaf_count": 133
                                        }
                                    },
                                    "right_child": {
                                        "leaf_index": 25,
                                        "leaf_value": -0.03181818181818182,
                                        "leaf_count": 44
                                    }
                                }
                            },
                            "right_child": {
                                "split_index": 12,
                                "split_feature": 25,
                                "split_gain": 25.9768009185791,
                                "threshold": 0.6235,
                                "decision_type": "<=",
                                "default_left": true,
                                "missing_type": "None",
                                "internal_value": 0.373717,
                                "internal_count": 974,
                                "left_child": {
                                    "leaf_index": 6,
                                    "leaf_value": -0.01801242236024845,
                                    "leaf_count": 161
                                },
                                "right_child": {
                                    "split_index": 16,
                                    "split_feature": 3,
                                    "split_gain": 17.886999130249023,
                                    "threshold": 1.9205000000000003,
                                    "decision_type": "<=",
                                    "default_left": true,
                                    "missing_type": "None",
                                    "internal_value": 0.519065,
                                    "internal_count": 813,
                                    "left_child": {
                                        "split_index": 17,
                                        "split_feature": 25,
                                        "split_gain": 17.32990074157715,
                                        "threshold": 0.9895000000000002,
                                        "decision_type": "<=",
                                        "default_left": true,
                                        "missing_type": "None",
                                        "internal_value": 0.627615,
                                        "internal_count": 717,
                                        "left_child": {
                                            "leaf_index": 13,
                                            "leaf_value": 0.043107221006564556,
                                            "leaf_count": 457
                                        },
                                        "right_child": {
                                            "split_index": 18,
                                            "split_feature": 13,
                                            "split_gain": 16.21299934387207,
                                            "threshold": 1.3835000000000004,
                                            "decision_type": "<=",
                                            "default_left": true,
                                            "missing_type": "None",
                                            "internal_value": 0.215385,
                                            "internal_count": 260,
                                            "left_child": {
                                                "leaf_index": 18,
                                                "leaf_value": -0.0024630541871921187,
                                                "leaf_count": 203
                                            },
                                            "right_child": {
                                                "leaf_index": 19,
                                                "leaf_value": 0.05789473684210527,
                                                "leaf_count": 57
                                            }
                                        }
                                    },
                                    "right_child": {
                                        "leaf_index": 17,
                                        "leaf_value": -0.014583333333333335,
                                        "leaf_count": 96
                                    }
                                }
                            }
                        }
                    }
                },
                "right_child": {
                    "split_index": 14,
                    "split_feature": 27,
                    "split_gain": 21.856700897216797,
                    "threshold": 0.8895000000000001,
                    "decision_type": "<=",
                    "default_left": true,
                    "missing_type": "None",
                    "internal_value": -0.761538,
                    "internal_count": 1040,
                    "left_child": {
                        "split_index": 20,
                        "split_feature": 22,
                        "split_gain": 14.41189956665039,
                        "threshold": 0.9475000000000001,
                        "decision_type": "<=",
                        "default_left": true,
                        "missing_type": "None",
                        "internal_value": -0.227848,
                        "internal_count": 237,
                        "left_child": {
                            "leaf_index": 1,
                            "leaf_value": -0.03553719008264463,
                            "leaf_count": 121
                        },
                        "right_child": {
                            "split_index": 21,
                            "split_feature": 19,
                            "split_gain": 15.331600189208984,
                            "threshold": -0.9644999999999999,
                            "decision_type": "<=",
                            "default_left": true,
                            "missing_type": "None",
                            "internal_value": 0.275862,
                            "internal_count": 116,
                            "left_child": {
                                "leaf_index": 21,
                                "leaf_value": -0.05384615384615382,
                                "leaf_count": 26
                            },
                            "right_child": {
                                "leaf_index": 22,
                                "leaf_value": 0.03333333333333333,
                                "leaf_count": 90
                            }
                        }
                    },
                    "right_child": {
                        "split_index": 15,
                        "split_feature": 24,
                        "split_gain": 33.647300720214844,
                        "threshold": 1.1225000000000003,
                        "decision_type": "<=",
                        "default_left": true,
                        "missing_type": "None",
                        "internal_value": -0.919054,
                        "internal_count": 803,
                        "left_child": {
                            "leaf_index": 15,
                            "leaf_value": -0.06540284360189573,
                            "leaf_count": 422
                        },
                        "right_child": {
                            "split_index": 19,
                            "split_feature": 3,
                            "split_gain": 15.136099815368652,
                            "threshold": 1.8335000000000004,
                            "decision_type": "<=",
                            "default_left": true,
                            "missing_type": "None",
                            "internal_value": -0.488189,
                            "internal_count": 381,
                            "left_child": {
                                "leaf_index": 16,
                                "leaf_value": -0.016049382716049384,
                                "leaf_count": 324
                            },
                            "right_child": {
                                "leaf_index": 20,
                                "leaf_value": -0.07192982456140351,
                                "leaf_count": 57
                            }
                        }
                    }
                }
            }
        },
        {
            "tree_index": 1,
            "num_leaves": 31,
            "num_cat": 0,
            "shrinkage": 0.05,
            "tree_structure": {
                "split_index": 0,
                "split_feature": 25,
                "split_gain": 232.13999938964844,
                "threshold": 1.2815,
                "decision_type": "<=",
                "default_left": true,
                "missing_type": "None",
                "internal_value": 0,
                "internal_count": 5600,
                "left_child": {
                    "split_index": 1,
                    "split_feature": 26,
                    "split_gain": 148.83799743652344,
                    "threshold": 0.7765000000000001,
                    "decision_type": "<=",
                    "default_left": true,
                    "missing_type": "None",
                    "internal_value": 0.323532,
                    "internal_count": 4560,
                    "left_child": {
                        "split_index": 5,
                        "split_feature": 5,
                        "split_gain": 33.896400451660156,
                        "threshold": 0.8255,
                        "decision_type": "<=",
                        "default_left": true,
                        "missing_type": "None",
                        "internal_value": -0.356584,
                        "internal_count": 1004,
                        "left_child": {
                            "split_index": 15,
                            "split_feature": 24,
                            "split_gain": 13.271499633789062,
                            "threshold": 0.7185000000000001,
                            "decision_type": "<=",
                            "default_left": true,
                            "missing_type": "None",
                            "internal_value": -0.610265,
                            "internal_count": 680,
                            "left_child": {
                                "split_index": 25,
                                "split_feature": 19,
                                "split_gain": 10.078200340270996,
                                "threshold": 1.0425000000000002,
                                "decision_type": "<=",
                                "default_left": true,
                                "missing_type": "None",
                                "internal_value": -0.277342,
                                "internal_count": 281,
                                "left_child": {
                                    "split_index": 28,
                                    "split_feature": 23,
                                    "split_gain": 9.320500373840332,
                                    "threshold": 0.9805,
                                    "decision_type": "<=",
                                    "default_left": true,
                                    "missing_type": "None",
                                    "internal_value": -0.0841718,
                                    "internal_count": 223,
                                    "left_child": {
                                        "leaf_index": 0,
                                        "leaf_value": -0.06449640602458544,
                                        "leaf_count": 23
                                    },
                                    "right_child": {
                                        "split_index": 29,
                                        "split_feature": 3,
                                        "split_gain": 10.594300270080566,
                                        "threshold": 0.3365000000000001,
                                        "decision_type": "<=",
                                        "default_left": true,
                                        "missing_type": "None",
                                        "internal_value": 0.0544902,
                                        "internal_count": 200,
                                        "left_child": {
                                            "leaf_index": 29,
                                            "leaf_value": 0.06226609199823077,
                                            "leaf_count": 26
                                        },
                                        "right_child": {
                                            "leaf_index": 30,
                                            "leaf_value": -0.0061725089723261755,
                                            "leaf_count": 174
                                        }
                                    }
                                },
                                "right_child": {
                                    "leaf_index": 26,
                                    "leaf_value": -0.051002445266993324,
                                    "leaf_count": 58
                                }
                            },
                            "right_child": {
                                "leaf_index": 16,
                                "leaf_value": -0.042241189160716126,
                                "leaf_count": 399
                            }
                        },
                        "right_child": {
                            "split_index": 13,
                            "split_feature": 3,
                            "split_gain": 15.812700271606445,
                            "threshold": 0.9765,
                            "decision_type": "<=",
                            "default_left": true,
                            "missing_type": "None",
                            "internal_value": 0.175954,
                            "internal_count": 324,
                            "left_child": {
                                "leaf_index": 6,
                                "leaf_value": 0.02642264856555575,
                                "leaf_count": 198
                            },
                            "right_child": {
                                "split_index": 16,
                                "split_feature": 9,
                                "split_gain": 12.730600357055664,
                                "threshold": 0.8925000000000002,
                                "decision_type": "<=",
                                "default_left": true,
                                "missing_type": "None",
                                "internal_value": -0.378145,
                                "internal_count": 126,
                                "left_child": {
                                    "leaf_index": 14,
                                    "leaf_value": -0.04343496681099046,
                                    "leaf_count": 79
                                },
                                "right_child": {
                                    "leaf_index": 17,
                                    "leaf_value": 0.022314618105371813,
                                    "leaf_count": 47
                                }
                            }
                        }
                    },
                    "right_child": {
                        "split_index": 2,
                        "split_feature": 25,
                        "split_gain": 79.2677993774414,
                        "threshold": 0.6235,
                        "decision_type": "<=",
                        "default_left": true,
                        "missing_type": "None",
                        "internal_value": 0.515612,
                        "internal_count": 3556,
                        "left_child": {
                            "split_index": 19,
                            "split_feature": 5,
                            "split_gain": 12.227299690246582,
                            "threshold": 1.5755000000000001,
                            "decision_type": "<=",
                            "default_left": true,
                            "missing_type": "None",
                            "internal_value": -0.156699,
                            "internal_count": 586,
                            "left_child": {
                                "leaf_index": 2,
                                "leaf_value": -0.012343081404711853,
                                "leaf_count": 534
                            },
                            "right_child": {
                                "leaf_index": 20,
                                "leaf_value": 0.03846217429483855,
                                "leaf_count": 52
                            }
                        },
                        "right_child": {
                            "split_index": 3,
                            "split_feature": 25,
                            "split_gain": 117.46800231933594,
                            "threshold": 0.9895000000000002,
                            "decision_type": "<=",
                            "default_left": true,
                            "missing_type": "None",
                            "internal_value": 0.648324,
                            "internal_count": 2970,
                            "left_child": {
                                "split_index": 4,
                                "split_feature": 3,
                                "split_gain": 38.00120162963867,
                                "threshold": 1.6175000000000004,
                                "decision_type": "<=",
                                "default_left": true,
                                "missing_type": "None",
                                "internal_value": 0.89868,
                                "internal_count": 2128,
                                "left_child": {
                                    "split_index": 7,
                                    "split_feature": 5,
                                    "split_gain": 19.30120086669922,
                                    "threshold": 0.8815000000000001,
                                    "decision_type": "<=",
                                    "default_left": true,
                                    "missing_type": "None",
                                    "internal_value": 1.00405,
                                    "internal_count": 1842,
                                    "left_child": {
                                        "split_index": 18,
                                        "split_feature": 3,
                                        "split_gain": 12.375100135803223,
                                        "threshold": 1.1435000000000002,
                                        "decision_type": "<=",
                                        "default_left": true,
                                        "missing_type": "None",
                                        "internal_value": 0.793597,
                                        "internal_count": 896,
                                        "left_child": {
                                            "leaf_index": 3,
                                            "leaf_value": 0.04614497169127874,
                                            "leaf_count": 688
                                        },
                                        "right_child": {
                                            "leaf_index": 19,
                                            "leaf_value": 0.01829725924552224,
                                            "leaf_count": 208
                                        }
                                    },
                                    "right_child": {
                                        "split_index": 8,
                                        "split_feature": 26,
                                        "split_gain": 21.55430030822754,
                                        "threshold": 1.0375000000000003,
                                        "decision_type": "<=",
                                        "default_left": true,
                                        "missing_type": "None",
                                        "internal_value": 1.20339,
                                        "internal_count": 946,
                                        "left_child": {
                                            "leaf_index": 8,
                                            "leaf_value": 0.07071586616741485,
                                            "leaf_count": 636
                                        },
                                        "right_child": {
                                            "leaf_index": 9,
                                            "leaf_value": 0.03854481196019653,
                                            "leaf_count": 310
                                        }
                                    }
                                },
                                "right_child": {
                                    "split_index": 20,
                                    "split_feature": 24,
                                    "split_gain": 11.55210018157959,
                                    "threshold": 1.7450000000000003,
                                    "decision_type": "<=",
                                    "default_left": true,
                                    "missing_type": "None",
                                    "internal_value": 0.220204,
                                    "internal_count": 286,
                                    "left_child": {
                                        "split_index": 23,
                                        "split_feature": 13,
                                        "split_gain": 11.481300354003906,
                                        "threshold": 0.7325,
                                        "decision_type": "<=",
                                        "default_left": true,
                                        "missing_type": "None",
                                        "internal_value": 0.352699,
                                        "internal_count": 258,
                                        "left_child": {
                                            "leaf_index": 5,
                                            "leaf_value": 0.046717290064776346,
                                            "leaf_count": 89
                                        },
                                        "right_child": {
                                            "leaf_index": 24,
                                            "leaf_value": 0.0023226244816229773,
                                            "leaf_count": 169
                                        }
                                    },
                                    "right_child": {
                                        "leaf_index": 21,
                                        "leaf_value": -0.04999969000749288,
                                        "leaf_count": 28
                                    }
                                }
                            },
                            "right_child": {
                                "split_index": 9,
                                "split_feature": 22,
                                "split_gain": 18.53179931640625,
                                "threshold": 1.0025000000000002,
                                "decision_type": "<=",
                                "default_left": true,
                                "missing_type": "None",
                                "internal_value": 0.0159405,
                                "internal_count": 842,
                                "left_child": {
                                    "split_index": 10,
                                    "split_feature": 22,
                                    "split_gain": 19.016199111938477,
                                    "threshold": 0.8495000000000001,
                                    "decision_type": "<=",
                                    "default_left": true,
                                    "missing_type": "None",
                                    "internal_value": -0.229501,
                                    "internal_count": 500,
                                    "left_child": {
                                        "leaf_index": 4,
                                        "leaf_value": 0.010891079506783787,
                                        "leaf_count": 216
                                    },
                                    "right_child": {
                                        "leaf_index": 11,
                                        "leaf_value": -0.028485674888581138,
                                        "leaf_count": 284
                                    }
                                },
                                "right_child": {
                                    "split_index": 14,
                                    "split_feature": 26,
                                    "split_gain": 14.213199615478516,
                                    "threshold": 0.9495000000000001,
                                    "decision_type": "<=",
                                    "default_left": true,
                                    "missing_type": "None",
                                    "internal_value": 0.374751,
                                    "internal_count": 342,
                                    "left_child": {
                                        "split_index": 27,
                                        "split_feature": 5,
                                        "split_gain": 9.356510162353516,
                                        "threshold": 0.9805,
                                        "decision_type": "<=",
                                        "default_left": true,
                                        "missing_type": "None",
                                        "internal_value": -0.408069,
                                        "internal_count": 73,
                                        "left_child": {
                                            "leaf_index": 10,
                                            "leaf_value": -0.04239584053069534,
                                            "leaf_count": 53
                                        },
                                        "right_child": {
                                            "leaf_index": 28,
                                            "leaf_value": 0.037897996234674464,
                                            "leaf_count": 20
                                        }
                                    },
                                    "right_child": {
                                        "split_index": 21,
                                        "split_feature": 26,
                                        "split_gain": 11.496199607849121,
                                        "threshold": 1.1205000000000003,
                                        "decision_type": "<=",
                                        "default_left": true,
                                        "missing_type": "None",
                                        "internal_value": 0.587171,
                                        "internal_count": 269,
                                        "left_child": {
                                            "leaf_index": 15,
                                            "leaf_value": 0.05188473149961253,
                                            "leaf_count": 123
                                        },
                                        "right_child": {
                                            "split_index": 22,
                                            "split_feature": 19,
                                            "split_gain": 11.792900085449219,
                                            "threshold": 0.6290000000000001,
                                            "decision_type": "<=",
                                            "default_left": true,
                                            "missing_type": "None",
                                            "internal_value": 0.207621,
                                            "internal_count": 146,
                                            "left_child": {
                                                "leaf_index": 22,
                                                "leaf_value": -0.008286931403041183,
                                                "leaf_count": 102
                                            },
                                            "right_child": {
                                                "leaf_index": 23,
                                                "leaf_value": 0.053661654091943393,
                                                "leaf_count": 44
                                            }
                                        }
                                    }
                                }
                            }
                        }
                    }
                },
                "right_child": {
                    "split_index": 6,
                    "split_feature": 22,
                    "split_gain": 19.949499130249023,
                    "threshold": 1.0445000000000002,
                    "decision_type": "<=",
                    "default_left": true,
                    "missing_type": "None",
                    "internal_value": -0.72391,
                    "internal_count": 1040,
                    "left_child": {
                        "split_index": 11,
                        "split_feature": 26,
                        "split_gain": 17.741199493408203,
                        "threshold": 0.9765,
                        "decision_type": "<=",
                        "default_left": true,
                        "missing_type": "None",
                        "internal_value": -0.921682,
                        "internal_count": 689,
                        "left_child": {
                            "split_index": 24,
                            "split_feature": 9,
                            "split_gain": 11.23009967803955,
                            "threshold": 0.8185000000000001,
                            "decision_type": "<=",
                            "default_left": true,
                            "missing_type": "None",
                            "internal_value": -0.256064,
                            "internal_count": 130,
                            "left_child": {
                                "leaf_index": 1,
                                "leaf_value": -0.05770994793961011,
                                "leaf_count": 39
                            },
                            "right_child": {
                                "leaf_index": 25,
                                "leaf_value": 0.006441253992041153,
                                "leaf_count": 91
                            }
                        },
                        "right_child": {
                            "split_index": 12,
                            "split_feature": 22,
                            "split_gain": 20.19879913330078,
                            "threshold": 0.7845000000000001,
                            "decision_type": "<=",
                            "default_left": true,
                            "missing_type": "None",
                            "internal_value": -1.07652,
                            "internal_count": 559,
                            "left_child": {
                                "leaf_index": 12,
                                "leaf_value": 0.0005033236819142684,
                                "leaf_count": 61
                            },
                            "right_child": {
                                "split_index": 26,
                                "split_feature": 24,
                                "split_gain": 9.941650390625,
                                "threshold": 1.1005000000000003,
                                "decision_type": "<=",
                                "default_left": true,
                                "missing_type": "None",
                                "internal_value": -1.20962,
                                "internal_count": 498,
                                "left_child": {
                                    "leaf_index": 13,
                                    "leaf_value": -0.07196723479091573,
                                    "leaf_count": 300
                                },
                                "right_child": {
                                    "leaf_index": 27,
                                    "leaf_value": -0.04308905478289894,
                                    "leaf_count": 198
                                }
                            }
                        }
                    },
                    "right_child": {
                        "split_index": 17,
                        "split_feature": 25,
                        "split_gain": 12.701399803161621,
                        "threshold": 2.0390000000000006,
                        "decision_type": "<=",
                        "default_left": true,
                        "missing_type": "None",
                        "internal_value": -0.335709,
                        "internal_count": 351,
                        "left_child": {
                            "leaf_index": 7,
                            "leaf_value": -0.005361413113491433,
                            "leaf_count": 258
                        },
                        "right_child": {
                            "leaf_index": 18,
                            "leaf_value": -0.04847911110060985,
                            "leaf_count": 93
                        }
                    }
                }
            }
        },
        {
            "tree_index": 2,
            "num_leaves": 31,
            "num_cat": 0,
            "shrinkage": 0.05,
            "tree_structure": {
                "split_index": 0,
                "split_feature": 27,
                "split_gain": 147.60400390625,
                "threshold": 0.9025000000000002,
                "decision_type": "<=",
                "default_left": true,
                "missing_type": "None",
                "internal_value": 0,
                "internal_count": 5600,
                "left_child": {
                    "split_index": 1,
                    "split_feature": 26,
                    "split_gain": 183.23599243164062,
                    "threshold": 0.8115000000000001,
                    "decision_type": "<=",
                    "default_left": true,
                    "missing_type": "None",
                    "internal_value": 0.408674,
                    "internal_count": 3157,
                    "left_child": {
                        "split_index": 4,
                        "split_feature": 5,
                        "split_gain": 40.43769836425781,
                        "threshold": 0.8205000000000001,
                        "decision_type": "<=",
                        "default_left": true,
                        "missing_type": "None",
                        "internal_value": -0.205226,
                        "internal_count": 1204,
                        "left_child": {
                            "split_index": 15,
                            "split_feature": 26,
                            "split_gain": 13.156399726867676,
                            "threshold": 0.7725000000000001,
                            "decision_type": "<=",
                            "default_left": true,
                            "missing_type": "None",
                            "internal_value": -0.460066,
                            "internal_count": 812,
                            "left_child": {
                                "split_index": 22,
                                "split_feature": 24,
                                "split_gain": 10.770400047302246,
                                "threshold": 0.7185000000000001,
                                "decision_type": "<=",
                                "default_left": true,
                                "missing_type": "None",
                                "internal_value": -0.591632,
                                "internal_count": 641,
                                "left_child": {
                                    "split_index": 29,
                                    "split_feature": 19,
                                    "split_gain": 10.103500366210938,
                                    "threshold": 0.8035000000000001,
                                    "decision_type": "<=",
                                    "default_left": true,
                                    "missing_type": "None",
                                    "internal_value": -0.288723,
                                    "internal_count": 271,
                                    "left_child": {
                                        "leaf_index": 0,
                                        "leaf_value": -0.0017183605192146038,
                                        "leaf_count": 189
                                    },
                                    "right_child": {
                                        "leaf_index": 30,
                                        "leaf_value": -0.04376483944144892,
                                        "leaf_count": 82
                                    }
                                },
                                "right_child": {
                                    "leaf_index": 23,
                                    "leaf_value": -0.04068945666220582,
                                    "leaf_count": 370
                                }
                            },
                            "right_child": {
                                "split_index": 20,
                                "split_feature": 18,
                                "split_gain": 11.1358003616333,
                                "threshold": 0.03750000000000001,
                                "decision_type": "<=",
                                "default_left": true,
                                "missing_type": "None",
                                "internal_value": 0.0331611,
                                "internal_count": 171,
                                "left_child": {
                                    "split_index": 21,
                                    "split_feature": 27,
                                    "split_gain": 10.839300155639648,
                                    "threshold": 0.7335000000000002,
                                    "decision_type": "<=",
                                    "default_left": true,
                                    "missing_type": "None",
                                    "internal_value": -0.412872,
                                    "internal_count": 97,
                                    "left_child": {
                                        "leaf_index": 16,
                                        "leaf_value": 0.013867031209414843,
                                        "leaf_count": 47
                                    },
                                    "right_child": {
                                        "leaf_index": 22,
                                        "leaf_value": -0.053063926775696116,
                                        "leaf_count": 50
                                    }
                                },
                                "right_child": {
                                    "leaf_index": 21,
                                    "leaf_value": 0.03089757851060151,
                                    "leaf_count": 74
                                }
                            }
                        },
                        "right_child": {
                            "split_index": 18,
                            "split_feature": 5,
                            "split_gain": 12.375900268554688,
                            "threshold": 1.3665,
                            "decision_type": "<=",
                            "default_left": true,
                            "missing_type": "None",
                            "internal_value": 0.322591,
                            "internal_count": 392,
                            "left_child": {
                                "leaf_index": 5,
                                "leaf_value": 0.008206791685407331,
                                "leaf_count": 327
                            },
                            "right_child": {
                                "leaf_index": 19,
                                "leaf_value": 0.05602373736163179,
                                "leaf_count": 65
                            }
                        }
                    },
                    "right_child": {
                        "split_index": 6,
                        "split_feature": 5,
                        "split_gain": 26.94059944152832,
                        "threshold": 0.8965000000000001,
                        "decision_type": "<=",
                        "default_left": true,
                        "missing_type": "None",
                        "internal_value": 0.78761,
                        "internal_count": 1953,
                        "left_child": {
                            "split_index": 7,
                            "split_feature": 22,
                            "split_gain": 18.917499542236328,
                            "threshold": 1.0355,
                            "decision_type": "<=",
                            "default_left": true,
                            "missing_type": "None",
                            "internal_value": 0.56257,
                            "internal_count": 1019,
                            "left_child": {
                                "split_index": 8,
                                "split_feature": 27,
                                "split_gain": 22.142900466918945,
                                "threshold": 0.8385000000000001,
                                "decision_type": "<=",
                                "default_left": true,
                                "missing_type": "None",
                                "internal_value": 0.417806,
                                "internal_count": 795,
                                "left_child": {
                                    "split_index": 26,
                                    "split_feature": 4,
                                    "split_gain": 10.465299606323242,
                                    "threshold": -1.2844999999999998,
                                    "decision_type": "<=",
                                    "default_left": true,
                                    "missing_type": "None",
                                    "internal_value": 0.632311,
                                    "internal_count": 563,
                                    "left_child": {
                                        "split_index": 27,
                                        "split_feature": 26,
                                        "split_gain": 15.414299964904785,
                                        "threshold": 0.8605000000000002,
                                        "decision_type": "<=",
                                        "default_left": true,
                                        "missing_type": "None",
                                        "internal_value": -0.0382749,
                                        "internal_count": 80,
                                        "left_child": {
                                            "leaf_index": 2,
                                            "leaf_value": -0.05045453387783089,
                                            "leaf_count": 36
                                        },
                                        "right_child": {
                                            "leaf_index": 28,
                                            "leaf_value": 0.03785017948276381,
                                            "leaf_count": 44
                                        }
                                    },
                                    "right_child": {
                                        "leaf_index": 27,
                                        "leaf_value": 0.03717039946238673,
                                        "leaf_count": 483
                                    }
                                },
                                "right_child": {
                                    "split_index": 16,
                                    "split_feature": 26,
                                    "split_gain": 13.04800033569336,
                                    "threshold": 0.8985000000000002,
                                    "decision_type": "<=",
                                    "default_left": true,
                                    "missing_type": "None",
                                    "internal_value": -0.102544,
                                    "internal_count": 232,
                                    "left_child": {
                                        "leaf_index": 9,
                                        "leaf_value": -0.041970675968428066,
                                        "leaf_count": 68
                                    },
                                    "right_child": {
                                        "leaf_index": 17,
                                        "leaf_value": 0.010162108398462578,
                                        "leaf_count": 164
                                    }
                                }
                            },
                            "right_child": {
                                "leaf_index": 8,
                                "leaf_value": 0.0538262584781147,
                                "leaf_count": 224
                            }
                        },
                        "right_child": {
                            "leaf_index": 7,
                            "leaf_value": 0.05167042682225795,
                            "leaf_count": 934
                        }
                    }
                },
                "right_child": {
                    "split_index": 2,
                    "split_feature": 24,
                    "split_gain": 89.39679718017578,
                    "threshold": 1.0265000000000002,
                    "decision_type": "<=",
                    "default_left": true,
                    "missing_type": "None",
                    "internal_value": -0.24662,
                    "internal_count": 2443,
                    "left_child": {
                        "split_index": 3,
                        "split_feature": 22,
                        "split_gain": 95.02570343017578,
                        "threshold": 1.0445000000000002,
                        "decision_type": "<=",
                        "default_left": true,
                        "missing_type": "None",
                        "internal_value": -0.698601,
                        "internal_count": 1021,
                        "left_child": {
                            "split_index": 17,
                            "split_feature": 27,
                            "split_gain": 12.684700012207031,
                            "threshold": 1.0885000000000002,
                            "decision_type": "<=",
                            "default_left": true,
                            "missing_type": "None",
                            "internal_value": -1.22928,
                            "internal_count": 582,
                            "left_child": {
                                "split_index": 23,
                                "split_feature": 24,
                                "split_gain": 10.72700023651123,
                                "threshold": 0.7355000000000002,
                                "decision_type": "<=",
                                "default_left": true,
                                "missing_type": "None",
                                "internal_value": -1.0097,
                                "internal_count": 375,
                                "left_child": {
                                    "leaf_index": 1,
                                    "leaf_value": -0.010913576627317375,
                                    "leaf_count": 58
                                },
                                "right_child": {
                                    "split_index": 24,
                                    "split_feature": 22,
                                    "split_gain": 12.223199844360352,
                                    "threshold": 0.8015000000000001,
                                    "decision_type": "<=",
                                    "default_left": true,
                                    "missing_type": "None",
                                    "internal_value": -1.15459,
                                    "internal_count": 317,
                                    "left_child": {
                                        "leaf_index": 24,
                                        "leaf_value": -0.015320437252116518,
                                        "leaf_count": 56
                                    },
                                    "right_child": {
                                        "leaf_index": 25,
                                        "leaf_value": -0.06684194353732903,
                                        "leaf_count": 261
                                    }
                                }
                            },
                            "right_child": {
                                "leaf_index": 18,
                                "leaf_value": -0.08136050800318463,
                                "leaf_count": 207
                            }
                        },
                        "right_child": {
                            "split_index": 9,
                            "split_feature": 26,
                            "split_gain": 18.728500366210938,
                            "threshold": 1.3665,
                            "decision_type": "<=",
                            "default_left": true,
                            "missing_type": "None",
                            "internal_value": 0.00418923,
                            "internal_count": 439,
                            "left_child": {
                                "split_index": 14,
                                "split_feature": 24,
                                "split_gain": 13.287599563598633,
                                "threshold": 0.7825000000000001,
                                "decision_type": "<=",
                                "default_left": true,
                                "missing_type": "None",
                                "internal_value": 0.285511,
                                "internal_count": 300,
                                "left_child": {
                                    "split_index": 28,
                                    "split_feature": 13,
                                    "split_gain": 10.180800437927246,
                                    "threshold": 0.7805000000000001,
                                    "decision_type": "<=",
                                    "default_left": true,
                                    "missing_type": "None",
                                    "internal_value": 0.894779,
                                    "internal_count": 97,
                                    "left_child": {
                                        "leaf_index": 4,
                                        "leaf_value": -0.00489901366878786,
                                        "leaf_count": 29
                                    },
                                    "right_child": {
                                        "leaf_index": 29,
                                        "leaf_value": 0.06590768901654649,
                                        "leaf_count": 68
                                    }
                                },
                                "right_child": {
                                    "leaf_index": 15,
                                    "leaf_value": -0.00028009770138282116,
                                    "leaf_count": 203
                                }
                            },
                            "right_child": {
                                "split_index": 11,
                                "split_feature": 22,
                                "split_gain": 13.55150032043457,
                                "threshold": 1.5530000000000002,
                                "decision_type": "<=",
                                "default_left": true,
                                "missing_type": "None",
                                "internal_value": -0.603124,
                                "internal_count": 139,
                                "left_child": {
                                    "leaf_index": 10,
                                    "leaf_value": -0.07847074317965057,
                                    "leaf_count": 41
                                },
                                "right_child": {
                                    "split_index": 19,
                                    "split_feature": 18,
                                    "split_gain": 11.711799621582031,
                                    "threshold": -0.8034999999999999,
                                    "decision_type": "<=",
                                    "default_left": true,
                                    "missing_type": "None",
                                    "internal_value": -0.199001,
                                    "internal_count": 98,
                                    "left_child": {
                                        "leaf_index": 12,
                                        "leaf_value": -0.0574190697871094,
                                        "leaf_count": 34
                                    },
                                    "right_child": {
                                        "leaf_index": 20,
                                        "leaf_value": 0.015257552015167165,
                                        "leaf_count": 64
                                    }
                                }
                            }
                        }
                    },
                    "right_child": {
                        "split_index": 5,
                        "split_feature": 3,
                        "split_gain": 27.3617000579834,
                        "threshold": 1.9205000000000003,
                        "decision_type": "<=",
                        "default_left": true,
                        "missing_type": "None",
                        "internal_value": 0.077683,
                        "internal_count": 1422,
                        "left_child": {
                            "split_index": 12,
                            "split_feature": 22,
                            "split_gain": 13.457099914550781,
                            "threshold": 1.0465000000000002,
                            "decision_type": "<=",
                            "default_left": true,
                            "missing_type": "None",
                            "internal_value": 0.182013,
                            "internal_count": 1246,
                            "left_child": {
                                "split_index": 13,
                                "split_feature": 22,
                                "split_gain": 18.482999801635742,
                                "threshold": 0.7445000000000002,
                                "decision_type": "<=",
                                "default_left": true,
                                "missing_type": "None",
                                "internal_value": 0.00424757,
                                "internal_count": 720,
                                "left_child": {
                                    "leaf_index": 3,
                                    "leaf_value": 0.04262322754930032,
                                    "leaf_count": 90
                                },
                                "right_child": {
                                    "leaf_index": 14,
                                    "leaf_value": -0.005847735355514281,
                                    "leaf_count": 630
                                }
                            },
                            "right_child": {
                                "leaf_index": 13,
                                "leaf_value": 0.021265591113051152,
                                "leaf_count": 526
                            }
                        },
                        "right_child": {
                            "split_index": 10,
                            "split_feature": 26,
                            "split_gain": 16.17569923400879,
                            "threshold": 1.2195000000000003,
                            "decision_type": "<=",
                            "default_left": true,
                            "missing_type": "None",
                            "internal_value": -0.660872,
                            "internal_count": 176,
                            "left_child": {
                                "split_index": 25,
                                "split_feature": 1,
                                "split_gain": 10.669300079345703,
                                "threshold": -0.5024999999999998,
                                "decision_type": "<=",
                                "default_left": true,
                                "missing_type": "None",
                                "internal_value": 0.0187285,
                                "internal_count": 78,
                                "left_child": {
                                    "leaf_index": 6,
                                    "leaf_value": 0.047732682413330396,
                                    "leaf_count": 30
                                },
                                "right_child": {
                                    "leaf_index": 26,
                                    "leaf_value": -0.028306053317168536,
                                    "leaf_count": 48
                                }
                            },
                            "right_child": {
                                "leaf_index": 11,
                                "leaf_value": -0.06011965797108507,
                                "leaf_count": 98
                            }
                        }
                    }
                }
            }
        },
        {
            "tree_index": 3,
            "num_leaves": 31,
            "num_cat": 0,
            "shrinkage": 0.05,
            "tree_structure": {
                "split_index": 0,
                "split_feature": 25,
                "split_gain": 205.08599853515625,
                "threshold": 1.0565000000000002,
                "decision_type": "<=",
                "default_left": true,
                "missing_type": "None",
                "internal_value": 0,
                "internal_count": 5600,
                "left_child": {
                    "split_index": 1,
                    "split_feature": 26,
                    "split_gain": 146.16099548339844,
                    "threshold": 0.7805000000000001,
                    "decision_type": "<=",
                    "default_left": true,
                    "missing_type": "None",
                    "internal_value": 0.363833,
                    "internal_count": 3957,
                    "left_child": {
                        "split_index": 10,
                        "split_feature": 5,
                        "split_gain": 26.02829933166504,
                        "threshold": 0.8255,
                        "decision_type": "<=",
                        "default_left": true,
                        "missing_type": "None",
                        "internal_value": -0.302265,
                        "internal_count": 990,
                        "left_child": {
                            "leaf_index": 0,
                            "leaf_value": -0.02641471713658929,
                            "leaf_count": 667
                        },
                        "right_child": {
                            "split_index": 13,
                            "split_feature": 27,
                            "split_gain": 24.13599967956543,
                            "threshold": 0.7565000000000001,
                            "decision_type": "<=",
                            "default_left": true,
                            "missing_type": "None",
                            "internal_value": 0.164096,
                            "internal_count": 323,
                            "left_child": {
                                "split_index": 21,
                                "split_feature": 6,
                                "split_gain": 12.121800422668457,
                                "threshold": -1.2374999999999998,
                                "decision_type": "<=",
                                "default_left": true,
                                "missing_type": "None",
                                "internal_value": 0.541025,
                                "internal_count": 219,
                                "left_child": {
                                    "leaf_index": 11,
                                    "leaf_value": -0.0416605556812939,
                                    "leaf_count": 23
                                },
                                "right_child": {
                                    "leaf_index": 22,
                                    "leaf_value": 0.03511886736169086,
                                    "leaf_count": 196
                                }
                            },
                            "right_child": {
                                "split_index": 27,
                                "split_feature": 27,
                                "split_gain": 10.51729965209961,
                                "threshold": 0.9225000000000001,
                                "decision_type": "<=",
                                "default_left": true,
                                "missing_type": "None",
                                "internal_value": -0.630291,
                                "internal_count": 104,
                                "left_child": {
                                    "leaf_index": 14,
                                    "leaf_value": -0.015064140634141283,
                                    "leaf_count": 82
                                },
                                "right_child": {
                                    "leaf_index": 28,
                                    "leaf_value": -0.09313292754176794,
                                    "leaf_count": 22
                                }
                            }
                        }
                    },
                    "right_child": {
                        "split_index": 2,
                        "split_feature": 27,
                        "split_gain": 119.08000183105469,
                        "threshold": 0.9045000000000002,
                        "decision_type": "<=",
                        "default_left": true,
                        "missing_type": "None",
                        "internal_value": 0.586395,
                        "internal_count": 2967,
                        "left_child": {
                            "split_index": 3,
                            "split_feature": 25,
                            "split_gain": 47.97639846801758,
                            "threshold": 0.6785000000000001,
                            "decision_type": "<=",
                            "default_left": true,
                            "missing_type": "None",
                            "internal_value": 0.936139,
                            "internal_count": 1689,
                            "left_child": {
                                "split_index": 25,
                                "split_feature": 13,
                                "split_gain": 10.814200401306152,
                                "threshold": 0.9615000000000001,
                                "decision_type": "<=",
                                "default_left": true,
                                "missing_type": "None",
                                "internal_value": 0.328924,
                                "internal_count": 398,
                                "left_child": {
                                    "split_index": 26,
                                    "split_feature": 27,
                                    "split_gain": 12.497400283813477,
                                    "threshold": 0.8405000000000001,
                                    "decision_type": "<=",
                                    "default_left": true,
                                    "missing_type": "None",
                                    "internal_value": 0.135394,
                                    "internal_count": 296,
                                    "left_child": {
                                        "split_index": 28,
                                        "split_feature": 24,
                                        "split_gain": 10.331399917602539,
                                        "threshold": 0.8225000000000001,
                                        "decision_type": "<=",
                                        "default_left": true,
                                        "missing_type": "None",
                                        "internal_value": 0.375015,
                                        "internal_count": 221,
                                        "left_child": {
                                            "leaf_index": 2,
                                            "leaf_value": 0.045620777377964605,
                                            "leaf_count": 87
                                        },
                                        "right_child": {
                                            "leaf_index": 29,
                                            "leaf_value": 0.0013298913816042345,
                                            "leaf_count": 134
                                        }
                                    },
                                    "right_child": {
                                        "leaf_index": 27,
                                        "leaf_value": -0.0285103893281908,
                                        "leaf_count": 75
                                    }
                                },
                                "right_child": {
                                    "leaf_index": 26,
                                    "leaf_value": 0.044569000577099005,
                                    "leaf_count": 102
                                }
                            },
                            "right_child": {
                                "split_index": 6,
                                "split_feature": 26,
                                "split_gain": 30.6294002532959,
                                "threshold": 0.8695000000000002,
                                "decision_type": "<=",
                                "default_left": true,
                                "missing_type": "None",
                                "internal_value": 1.12421,
                                "internal_count": 1291,
                                "left_child": {
                                    "split_index": 9,
                                    "split_feature": 27,
                                    "split_gain": 27.14550018310547,
                                    "threshold": 0.7825000000000001,
                                    "decision_type": "<=",
                                    "default_left": true,
                                    "missing_type": "None",
                                    "internal_value": 0.692842,
                                    "internal_count": 437,
                                    "left_child": {
                                        "split_index": 16,
                                        "split_feature": 25,
                                        "split_gain": 17.274700164794922,
                                        "threshold": 0.9485000000000001,
                                        "decision_type": "<=",
                                        "default_left": true,
                                        "missing_type": "None",
                                        "internal_value": 1.05095,
                                        "internal_count": 289,
                                        "left_child": {
                                            "leaf_index": 4,
                                            "leaf_value": 0.06281031178276902,
                                            "leaf_count": 246
                                        },
                                        "right_child": {
                                            "leaf_index": 17,
                                            "leaf_value": -0.00601661519615231,
                                            "leaf_count": 43
                                        }
                                    },
                                    "right_child": {
                                        "split_index": 23,
                                        "split_feature": 4,
                                        "split_gain": 11.495400428771973,
                                        "threshold": -0.03949999999999999,
                                        "decision_type": "<=",
                                        "default_left": true,
                                        "missing_type": "None",
                                        "internal_value": -0.00401054,
                                        "internal_count": 148,
                                        "left_child": {
                                            "split_index": 24,
                                            "split_feature": 25,
                                            "split_gain": 13.669300079345703,
                                            "threshold": 0.8135000000000001,
                                            "decision_type": "<=",
                                            "default_left": true,
                                            "missing_type": "None",
                                            "internal_value": -0.569515,
                                            "internal_count": 73,
                                            "left_child": {
                                                "leaf_index": 10,
                                                "leaf_value": 0.039668472977595196,
                                                "leaf_count": 21
                                            },
                                            "right_child": {
                                                "leaf_index": 25,
                                                "leaf_value": -0.05600777791200845,
                                                "leaf_count": 52
                                            }
                                        },
                                        "right_child": {
                                            "leaf_index": 24,
                                            "leaf_value": 0.02732508415913451,
                                            "leaf_count": 75
                                        }
                                    }
                                },
                                "right_child": {
                                    "leaf_index": 7,
                                    "leaf_value": 0.06727919096467332,
                                    "leaf_count": 854
                                }
                            }
                        },
                        "right_child": {
                            "split_index": 5,
                            "split_feature": 25,
                            "split_gain": 39.21910095214844,
                            "threshold": 0.6235,
                            "decision_type": "<=",
                            "default_left": true,
                            "missing_type": "None",
                            "internal_value": 0.125669,
                            "internal_count": 1278,
                            "left_child": {
                                "split_index": 22,
                                "split_feature": 5,
                                "split_gain": 11.639399528503418,
                                "threshold": 1.5755000000000001,
                                "decision_type": "<=",
                                "default_left": true,
                                "missing_type": "None",
                                "internal_value": -0.527195,
                                "internal_count": 286,
                                "left_child": {
                                    "leaf_index": 3,
                                    "leaf_value": -0.03426244791633093,
                                    "leaf_count": 248
                                },
                                "right_child": {
                                    "leaf_index": 23,
                                    "leaf_value": 0.025202909298780652,
                                    "leaf_count": 38
                                }
                            },
                            "right_child": {
                                "split_index": 7,
                                "split_feature": 24,
                                "split_gain": 28.853900909423828,
                                "threshold": 1.0065000000000002,
                                "decision_type": "<=",
                                "default_left": true,
                                "missing_type": "None",
                                "internal_value": 0.314041,
                                "internal_count": 992,
                                "left_child": {
                                    "split_index": 8,
                                    "split_feature": 22,
                                    "split_gain": 55.91899871826172,
                                    "threshold": 0.9995000000000002,
                                    "decision_type": "<=",
                                    "default_left": true,
                                    "missing_type": "None",
                                    "internal_value": -0.125828,
                                    "internal_count": 373,
                                    "left_child": {
                                        "leaf_index": 6,
                                        "leaf_value": -0.052018973324598684,
                                        "leaf_count": 156
                                    },
                                    "right_child": {
                                        "leaf_index": 9,
                                        "leaf_value": 0.02656163313694614,
                                        "leaf_count": 217
                                    }
                                },
                                "right_child": {
                                    "split_index": 14,
                                    "split_feature": 3,
                                    "split_gain": 22.631799697875977,
                                    "threshold": 1.6740000000000002,
                                    "decision_type": "<=",
                                    "default_left": true,
                                    "missing_type": "None",
                                    "internal_value": 0.579084,
                                    "internal_count": 619,
                                    "left_child": {
                                        "split_index": 18,
                                        "split_feature": 5,
                                        "split_gain": 14.7878999710083,
                                        "threshold": 1.2445000000000002,
                                        "decision_type": "<=",
                                        "default_left": true,
                                        "missing_type": "None",
                                        "internal_value": 0.777509,
                                        "internal_count": 488,
                                        "left_child": {
                                            "leaf_index": 8,
                                            "leaf_value": 0.028376256544509988,
                                            "leaf_count": 358
                                        },
                                        "right_child": {
                                            "leaf_index": 19,
                                            "leaf_value": 0.06780140768006958,
                                            "leaf_count": 130
                                        }
                                    },
                                    "right_child": {
                                        "leaf_index": 15,
                                        "leaf_value": -0.007972346182267808,
                                        "leaf_count": 131
                                    }
                                }
                            }
                        }
                    }
                },
                "right_child": {
                    "split_index": 4,
                    "split_feature": 25,
                    "split_gain": 43.25130081176758,
                    "threshold": 1.4915,
                    "decision_type": "<=",
                    "default_left": true,
                    "missing_type": "None",
                    "internal_value": -0.478025,
                    "internal_count": 1643,
                    "left_child": {
                        "split_index": 11,
                        "split_feature": 22,
                        "split_gain": 24.154699325561523,
                        "threshold": 1.0025000000000002,
                        "decision_type": "<=",
                        "default_left": true,
                        "missing_type": "None",
                        "internal_value": -0.200024,
                        "internal_count": 948,
                        "left_child": {
                            "split_index": 12,
                            "split_feature": 27,
                            "split_gain": 24.700000762939453,
                            "threshold": 1.0445000000000002,
                            "decision_type": "<=",
                            "default_left": true,
                            "missing_type": "None",
                            "internal_value": -0.450712,
                            "internal_count": 587,
                            "left_child": {
                                "split_index": 15,
                                "split_feature": 5,
                                "split_gain": 21.58449935913086,
                                "threshold": 0.9155000000000001,
                                "decision_type": "<=",
                                "default_left": true,
                                "missing_type": "None",
                                "internal_value": -0.218945,
                                "internal_count": 445,
                                "left_child": {
                                    "leaf_index": 1,
                                    "leaf_value": -0.030684626979322106,
                                    "leaf_count": 247
                                },
                                "right_child": {
                                    "split_index": 19,
